<?xml version="1.0"?>
<opencv_storage>
<stage3>
  <maxWeakCount>9</maxWeakCount>
  <stageThreshold>-7.5169330835342407e-01</stageThreshold>
  <weakClassifiers>
    <_>
      <internalNodes>
        0 -1 31514 8.5260450839996338e-02</internalNodes>
      <leafValues>
        -1.5879827737808228e-01 8.4838497638702393e-01</leafValues></_>
    <_>
      <internalNodes>
        0 -1 11252 -1.5718951821327209e-02</internalNodes>
      <leafValues>
        6.2267410755157471e-01 -3.5480099916458130e-01</leafValues></_>
    <_>
      <internalNodes>
        0 -1 99762 -4.2884107679128647e-03</internalNodes>
      <leafValues>
        5.2884632349014282e-01 -4.2833131551742554e-01</leafValues></_>
    <_>
      <internalNodes>
        0 -1 120451 3.3572544343769550e-03</internalNodes>
      <leafValues>
        -2.2656346857547760e-01 7.1696174144744873e-01</leafValues></_>
    <_>
      <internalNodes>
        0 -1 127026 1.5253403224050999e-02</internalNodes>
      <leafValues>
        -3.0914634466171265e-01 5.1631087064743042e-01</leafValues></_>
    <_>
      <internalNodes>
        0 -1 1653 2.9659472405910492e-02</internalNodes>
      <leafValues>
        -4.4824394583702087e-01 3.6217322945594788e-01</leafValues></_>
    <_>
      <internalNodes>
        0 -1 67204 4.5879994286224246e-04</internalNodes>
      <leafValues>
        -2.9226937890052795e-01 5.4157060384750366e-01</leafValues></_>
    <_>
      <internalNodes>
        0 -1 90412 -1.3926785904914141e-03</internalNodes>
      <leafValues>
        5.9631502628326416e-01 -2.6421931385993958e-01</leafValues></_>
    <_>
      <internalNodes>
        0 -1 83325 1.2127743102610111e-03</internalNodes>
      <leafValues>
        -2.5397866964340210e-01 6.2589442729949951e-01</leafValues></_></weakClassifiers></stage3>
</opencv_storage>
